<Root>
  <ActivationFunctions>
    <Fn id="0" name="MC- " prob="0.010526315789473684" />
    <Fn id="1" name="MC-!" prob="0.010526315789473684" />
    <Fn id="2" name="MC-&quot;" prob="0.010526315789473684" />
    <Fn id="3" name="MC-#" prob="0.010526315789473684" />
    <Fn id="4" name="MC-$" prob="0.010526315789473684" />
    <Fn id="5" name="MC-%" prob="0.010526315789473684" />
    <Fn id="6" name="MC-&amp;" prob="0.010526315789473684" />
    <Fn id="7" name="MC-'" prob="0.010526315789473684" />
    <Fn id="8" name="MC-(" prob="0.010526315789473684" />
    <Fn id="9" name="MC-)" prob="0.010526315789473684" />
    <Fn id="10" name="MC-*" prob="0.010526315789473684" />
    <Fn id="11" name="MC-+" prob="0.010526315789473684" />
    <Fn id="12" name="MC-," prob="0.010526315789473684" />
    <Fn id="13" name="MC--" prob="0.010526315789473684" />
    <Fn id="14" name="MC-." prob="0.010526315789473684" />
    <Fn id="15" name="MC-/" prob="0.010526315789473684" />
    <Fn id="16" name="MC-0" prob="0.010526315789473684" />
    <Fn id="17" name="MC-1" prob="0.010526315789473684" />
    <Fn id="18" name="MC-2" prob="0.010526315789473684" />
    <Fn id="19" name="MC-3" prob="0.010526315789473684" />
    <Fn id="20" name="MC-4" prob="0.010526315789473684" />
    <Fn id="21" name="MC-5" prob="0.010526315789473684" />
    <Fn id="22" name="MC-6" prob="0.010526315789473684" />
    <Fn id="23" name="MC-7" prob="0.010526315789473684" />
    <Fn id="24" name="MC-8" prob="0.010526315789473684" />
    <Fn id="25" name="MC-9" prob="0.010526315789473684" />
    <Fn id="26" name="MC-:" prob="0.010526315789473684" />
    <Fn id="27" name="MC-;" prob="0.010526315789473684" />
    <Fn id="28" name="MC-&lt;" prob="0.010526315789473684" />
    <Fn id="29" name="MC-=" prob="0.010526315789473684" />
    <Fn id="30" name="MC-&gt;" prob="0.010526315789473684" />
    <Fn id="31" name="MC-?" prob="0.010526315789473684" />
    <Fn id="32" name="MC-@" prob="0.010526315789473684" />
    <Fn id="33" name="MC-A" prob="0.010526315789473684" />
    <Fn id="34" name="MC-B" prob="0.010526315789473684" />
    <Fn id="35" name="MC-C" prob="0.010526315789473684" />
    <Fn id="36" name="MC-D" prob="0.010526315789473684" />
    <Fn id="37" name="MC-E" prob="0.010526315789473684" />
    <Fn id="38" name="MC-F" prob="0.010526315789473684" />
    <Fn id="39" name="MC-G" prob="0.010526315789473684" />
    <Fn id="40" name="MC-H" prob="0.010526315789473684" />
    <Fn id="41" name="MC-I" prob="0.010526315789473684" />
    <Fn id="42" name="MC-J" prob="0.010526315789473684" />
    <Fn id="43" name="MC-K" prob="0.010526315789473684" />
    <Fn id="44" name="MC-L" prob="0.010526315789473684" />
    <Fn id="45" name="MC-M" prob="0.010526315789473684" />
    <Fn id="46" name="MC-N" prob="0.010526315789473684" />
    <Fn id="47" name="MC-O" prob="0.010526315789473684" />
    <Fn id="48" name="MC-P" prob="0.010526315789473684" />
    <Fn id="49" name="MC-Q" prob="0.010526315789473684" />
    <Fn id="50" name="MC-R" prob="0.010526315789473684" />
    <Fn id="51" name="MC-S" prob="0.010526315789473684" />
    <Fn id="52" name="MC-T" prob="0.010526315789473684" />
    <Fn id="53" name="MC-U" prob="0.010526315789473684" />
    <Fn id="54" name="MC-V" prob="0.010526315789473684" />
    <Fn id="55" name="MC-W" prob="0.010526315789473684" />
    <Fn id="56" name="MC-X" prob="0.010526315789473684" />
    <Fn id="57" name="MC-Y" prob="0.010526315789473684" />
    <Fn id="58" name="MC-Z" prob="0.010526315789473684" />
    <Fn id="59" name="MC-[" prob="0.010526315789473684" />
    <Fn id="60" name="MC-\" prob="0.010526315789473684" />
    <Fn id="61" name="MC-]" prob="0.010526315789473684" />
    <Fn id="62" name="MC-^" prob="0.010526315789473684" />
    <Fn id="63" name="MC-_" prob="0.010526315789473684" />
    <Fn id="64" name="MC-`" prob="0.010526315789473684" />
    <Fn id="65" name="MC-a" prob="0.010526315789473684" />
    <Fn id="66" name="MC-b" prob="0.010526315789473684" />
    <Fn id="67" name="MC-c" prob="0.010526315789473684" />
    <Fn id="68" name="MC-d" prob="0.010526315789473684" />
    <Fn id="69" name="MC-e" prob="0.010526315789473684" />
    <Fn id="70" name="MC-f" prob="0.010526315789473684" />
    <Fn id="71" name="MC-g" prob="0.010526315789473684" />
    <Fn id="72" name="MC-h" prob="0.010526315789473684" />
    <Fn id="73" name="MC-i" prob="0.010526315789473684" />
    <Fn id="74" name="MC-j" prob="0.010526315789473684" />
    <Fn id="75" name="MC-k" prob="0.010526315789473684" />
    <Fn id="76" name="MC-l" prob="0.010526315789473684" />
    <Fn id="77" name="MC-m" prob="0.010526315789473684" />
    <Fn id="78" name="MC-n" prob="0.010526315789473684" />
    <Fn id="79" name="MC-o" prob="0.010526315789473684" />
    <Fn id="80" name="MC-p" prob="0.010526315789473684" />
    <Fn id="81" name="MC-q" prob="0.010526315789473684" />
    <Fn id="82" name="MC-r" prob="0.010526315789473684" />
    <Fn id="83" name="MC-s" prob="0.010526315789473684" />
    <Fn id="84" name="MC-t" prob="0.010526315789473684" />
    <Fn id="85" name="MC-u" prob="0.010526315789473684" />
    <Fn id="86" name="MC-v" prob="0.010526315789473684" />
    <Fn id="87" name="MC-w" prob="0.010526315789473684" />
    <Fn id="88" name="MC-x" prob="0.010526315789473684" />
    <Fn id="89" name="MC-y" prob="0.010526315789473684" />
    <Fn id="90" name="MC-z" prob="0.010526315789473684" />
    <Fn id="91" name="MC-{" prob="0.010526315789473684" />
    <Fn id="92" name="MC-|" prob="0.010526315789473684" />
    <Fn id="93" name="MC-}" prob="0.010526315789473684" />
    <Fn id="94" name="MC-~" prob="0.010526315789473684" />
  </ActivationFunctions>
  <Networks>
    <Network id="117" birthGen="1" fitness="12000">
      <Nodes>
        <Node type="bias" id="0" fnId="0" />
        <Node type="in" id="1" fnId="0" />
        <Node type="out" id="2" fnId="0" />
        <Node type="out" id="3" fnId="1" />
        <Node type="out" id="4" fnId="2" />
        <Node type="out" id="5" fnId="3" />
        <Node type="out" id="6" fnId="4" />
        <Node type="out" id="7" fnId="5" />
        <Node type="out" id="8" fnId="6" />
        <Node type="out" id="9" fnId="7" />
        <Node type="out" id="10" fnId="8" />
        <Node type="out" id="11" fnId="9" />
        <Node type="out" id="12" fnId="10" />
        <Node type="out" id="13" fnId="11" />
        <Node type="out" id="14" fnId="12" />
        <Node type="out" id="15" fnId="13" />
        <Node type="out" id="16" fnId="14" />
        <Node type="out" id="17" fnId="15" />
        <Node type="out" id="18" fnId="16" />
        <Node type="out" id="19" fnId="17" />
        <Node type="out" id="20" fnId="18" />
        <Node type="out" id="21" fnId="19" />
        <Node type="out" id="22" fnId="20" />
        <Node type="out" id="23" fnId="21" />
        <Node type="out" id="24" fnId="22" />
        <Node type="out" id="25" fnId="23" />
        <Node type="out" id="26" fnId="24" />
        <Node type="out" id="27" fnId="25" />
        <Node type="out" id="28" fnId="26" />
        <Node type="out" id="29" fnId="27" />
        <Node type="out" id="30" fnId="28" />
        <Node type="out" id="31" fnId="29" />
        <Node type="out" id="32" fnId="30" />
        <Node type="out" id="33" fnId="31" />
        <Node type="out" id="34" fnId="32" />
        <Node type="out" id="35" fnId="33" />
        <Node type="out" id="36" fnId="34" />
        <Node type="out" id="37" fnId="35" />
        <Node type="out" id="38" fnId="36" />
        <Node type="out" id="39" fnId="37" />
        <Node type="out" id="40" fnId="38" />
        <Node type="out" id="41" fnId="39" />
        <Node type="out" id="42" fnId="40" />
        <Node type="out" id="43" fnId="41" />
        <Node type="out" id="44" fnId="42" />
        <Node type="out" id="45" fnId="43" />
        <Node type="out" id="46" fnId="44" />
        <Node type="out" id="47" fnId="45" />
        <Node type="out" id="48" fnId="46" />
        <Node type="out" id="49" fnId="47" />
        <Node type="out" id="50" fnId="48" />
        <Node type="out" id="51" fnId="49" />
        <Node type="out" id="52" fnId="50" />
        <Node type="out" id="53" fnId="51" />
        <Node type="out" id="54" fnId="52" />
        <Node type="out" id="55" fnId="53" />
        <Node type="out" id="56" fnId="54" />
        <Node type="out" id="57" fnId="55" />
        <Node type="out" id="58" fnId="56" />
        <Node type="out" id="59" fnId="57" />
        <Node type="out" id="60" fnId="58" />
        <Node type="out" id="61" fnId="59" />
        <Node type="out" id="62" fnId="60" />
        <Node type="out" id="63" fnId="61" />
        <Node type="out" id="64" fnId="62" />
        <Node type="out" id="65" fnId="63" />
        <Node type="out" id="66" fnId="64" />
        <Node type="out" id="67" fnId="65" />
        <Node type="out" id="68" fnId="66" />
        <Node type="out" id="69" fnId="67" />
        <Node type="out" id="70" fnId="68" />
        <Node type="out" id="71" fnId="69" />
        <Node type="out" id="72" fnId="70" />
        <Node type="out" id="73" fnId="71" />
        <Node type="out" id="74" fnId="72" />
        <Node type="out" id="75" fnId="73" />
        <Node type="out" id="76" fnId="74" />
        <Node type="out" id="77" fnId="75" />
        <Node type="out" id="78" fnId="76" />
        <Node type="out" id="79" fnId="77" />
        <Node type="out" id="80" fnId="78" />
        <Node type="out" id="81" fnId="79" />
        <Node type="out" id="82" fnId="80" />
        <Node type="out" id="83" fnId="81" />
        <Node type="out" id="84" fnId="82" />
        <Node type="out" id="85" fnId="83" />
        <Node type="out" id="86" fnId="84" />
        <Node type="out" id="87" fnId="85" />
        <Node type="out" id="88" fnId="86" />
        <Node type="out" id="89" fnId="87" />
        <Node type="out" id="90" fnId="88" />
        <Node type="out" id="91" fnId="89" />
        <Node type="out" id="92" fnId="90" />
        <Node type="out" id="93" fnId="91" />
        <Node type="out" id="94" fnId="92" />
        <Node type="out" id="95" fnId="93" />
        <Node type="out" id="96" fnId="94" />
        <Node type="hid" id="978" fnId="30" />
      </Nodes>
      <Connections>
        <Con id="97" src="2" tgt="34" wght="1" />
        <Con id="98" src="1" tgt="3" wght="0.00112834978843441" />
        <Con id="99" src="4" tgt="6" wght="1" />
        <Con id="100" src="5" tgt="7" wght="1" />
        <Con id="101" src="6" tgt="64" wght="1" />
        <Con id="102" src="7" tgt="12" wght="1" />
        <Con id="103" src="14" tgt="68" wght="0.2" />
        <Con id="104" src="14" tgt="72" wght="0.2" />
        <Con id="105" src="14" tgt="78" wght="0.2" />
        <Con id="106" src="14" tgt="79" wght="0.4" />
        <Con id="107" src="17" tgt="18" wght="0.445945945945946" />
        <Con id="108" src="17" tgt="19" wght="0.202702702702703" />
        <Con id="109" src="17" tgt="20" wght="0.0945945945945946" />
        <Con id="110" src="17" tgt="21" wght="0.027027027027027" />
        <Con id="111" src="17" tgt="23" wght="0.027027027027027" />
        <Con id="112" src="17" tgt="25" wght="0.0810810810810811" />
        <Con id="113" src="17" tgt="26" wght="0.0135135135135135" />
        <Con id="114" src="17" tgt="27" wght="0.0405405405405405" />
        <Con id="115" src="17" tgt="69" wght="0.0135135135135135" />
        <Con id="116" src="17" tgt="82" wght="0.0135135135135135" />
        <Con id="117" src="17" tgt="84" wght="0.0135135135135135" />
        <Con id="118" src="17" tgt="85" wght="0.027027027027027" />
        <Con id="119" src="1" tgt="18" wght="0.00394922425952045" />
        <Con id="120" src="18" tgt="18" wght="0.0594059405940594" />
        <Con id="121" src="18" tgt="19" wght="0.158415841584158" />
        <Con id="122" src="18" tgt="20" wght="0.346534653465347" />
        <Con id="123" src="18" tgt="21" wght="0.0643564356435644" />
        <Con id="124" src="18" tgt="22" wght="0.0792079207920792" />
        <Con id="125" src="18" tgt="23" wght="0.0247524752475248" />
        <Con id="126" src="18" tgt="24" wght="0.0148514851485149" />
        <Con id="127" src="18" tgt="25" wght="0.0396039603960396" />
        <Con id="128" src="18" tgt="26" wght="0.0396039603960396" />
        <Con id="129" src="18" tgt="27" wght="0.0940594059405941" />
        <Con id="130" src="18" tgt="67" wght="0.0099009900990099" />
        <Con id="131" src="18" tgt="68" wght="0.0099009900990099" />
        <Con id="132" src="18" tgt="69" wght="0.00495049504950495" />
        <Con id="133" src="18" tgt="70" wght="0.0099009900990099" />
        <Con id="134" src="18" tgt="71" wght="0.00495049504950495" />
        <Con id="135" src="18" tgt="77" wght="0.00495049504950495" />
        <Con id="136" src="18" tgt="78" wght="0.00495049504950495" />
        <Con id="137" src="18" tgt="83" wght="0.0198019801980198" />
        <Con id="138" src="18" tgt="89" wght="0.0099009900990099" />
        <Con id="139" src="1" tgt="19" wght="0.0222849083215797" />
        <Con id="140" src="19" tgt="18" wght="0.0852713178294574" />
        <Con id="141" src="19" tgt="19" wght="0.13953488372093" />
        <Con id="142" src="19" tgt="20" wght="0.124031007751938" />
        <Con id="143" src="19" tgt="21" wght="0.426356589147287" />
        <Con id="144" src="19" tgt="22" wght="0.0465116279069767" />
        <Con id="145" src="19" tgt="23" wght="0.0697674418604651" />
        <Con id="146" src="19" tgt="24" wght="0.00775193798449612" />
        <Con id="147" src="19" tgt="26" wght="0.00775193798449612" />
        <Con id="148" src="19" tgt="27" wght="0.00775193798449612" />
        <Con id="149" src="19" tgt="68" wght="0.00775193798449612" />
        <Con id="150" src="19" tgt="69" wght="0.0155038759689922" />
        <Con id="151" src="19" tgt="71" wght="0.0155038759689922" />
        <Con id="152" src="19" tgt="77" wght="0.00775193798449612" />
        <Con id="153" src="19" tgt="81" wght="0.00775193798449612" />
        <Con id="154" src="19" tgt="86" wght="0.00775193798449612" />
        <Con id="155" src="19" tgt="89" wght="0.0232558139534884" />
        <Con id="156" src="1" tgt="20" wght="0.00507757404795487" />
        <Con id="157" src="20" tgt="18" wght="0.0666666666666667" />
        <Con id="158" src="20" tgt="19" wght="0.146666666666667" />
        <Con id="159" src="20" tgt="20" wght="0.12" />
        <Con id="160" src="20" tgt="21" wght="0.16" />
        <Con id="161" src="20" tgt="22" wght="0.226666666666667" />
        <Con id="162" src="20" tgt="23" wght="0.0533333333333333" />
        <Con id="163" src="20" tgt="24" wght="0.0666666666666667" />
        <Con id="164" src="20" tgt="25" wght="0.0133333333333333" />
        <Con id="165" src="20" tgt="26" wght="0.0133333333333333" />
        <Con id="166" src="20" tgt="67" wght="0.0133333333333333" />
        <Con id="167" src="20" tgt="68" wght="0.0133333333333333" />
        <Con id="168" src="20" tgt="69" wght="0.0133333333333333" />
        <Con id="169" src="20" tgt="70" wght="0.0133333333333333" />
        <Con id="170" src="20" tgt="71" wght="0.04" />
        <Con id="171" src="20" tgt="73" wght="0.0133333333333333" />
        <Con id="172" src="20" tgt="83" wght="0.0133333333333333" />
        <Con id="173" src="20" tgt="84" wght="0.0133333333333333" />
        <Con id="174" src="1" tgt="21" wght="0.00225669957686883" />
        <Con id="175" src="21" tgt="18" wght="0.0175438596491228" />
        <Con id="176" src="21" tgt="19" wght="0.12280701754386" />
        <Con id="177" src="21" tgt="20" wght="0.0701754385964912" />
        <Con id="178" src="21" tgt="21" wght="0.105263157894737" />
        <Con id="179" src="21" tgt="22" wght="0.140350877192982" />
        <Con id="180" src="21" tgt="23" wght="0.315789473684211" />
        <Con id="181" src="21" tgt="24" wght="0.0350877192982456" />
        <Con id="182" src="21" tgt="25" wght="0.087719298245614" />
        <Con id="183" src="21" tgt="26" wght="0.0350877192982456" />
        <Con id="184" src="21" tgt="67" wght="0.0175438596491228" />
        <Con id="185" src="21" tgt="83" wght="0.0175438596491228" />
        <Con id="186" src="21" tgt="84" wght="0.0350877192982456" />
        <Con id="187" src="1" tgt="22" wght="0.00225669957686883" />
        <Con id="188" src="22" tgt="18" wght="0.0579710144927536" />
        <Con id="189" src="22" tgt="19" wght="0.0289855072463768" />
        <Con id="190" src="22" tgt="20" wght="0.173913043478261" />
        <Con id="191" src="22" tgt="21" wght="0.0579710144927536" />
        <Con id="192" src="22" tgt="22" wght="0.115942028985507" />
        <Con id="193" src="22" tgt="23" wght="0.202898550724638" />
        <Con id="194" src="22" tgt="24" wght="0.231884057971014" />
        <Con id="195" src="22" tgt="25" wght="0.0434782608695652" />
        <Con id="196" src="22" tgt="26" wght="0.0579710144927536" />
        <Con id="197" src="22" tgt="27" wght="0.0289855072463768" />
        <Con id="198" src="1" tgt="23" wght="0.00282087447108604" />
        <Con id="199" src="23" tgt="18" wght="0.0425531914893617" />
        <Con id="200" src="23" tgt="19" wght="0.0425531914893617" />
        <Con id="201" src="23" tgt="20" wght="0.0425531914893617" />
        <Con id="202" src="23" tgt="21" wght="0.0425531914893617" />
        <Con id="203" src="23" tgt="22" wght="0.0212765957446809" />
        <Con id="204" src="23" tgt="23" wght="0.148936170212766" />
        <Con id="205" src="23" tgt="24" wght="0.127659574468085" />
        <Con id="206" src="23" tgt="25" wght="0.170212765957447" />
        <Con id="207" src="23" tgt="26" wght="0.0425531914893617" />
        <Con id="208" src="23" tgt="27" wght="0.25531914893617" />
        <Con id="209" src="23" tgt="67" wght="0.0212765957446809" />
        <Con id="210" src="23" tgt="87" wght="0.0212765957446809" />
        <Con id="211" src="23" tgt="89" wght="0.0212765957446809" />
        <Con id="212" src="1" tgt="24" wght="0.00169252468265162" />
        <Con id="213" src="24" tgt="18" wght="0.111111111111111" />
        <Con id="214" src="24" tgt="19" wght="0.037037037037037" />
        <Con id="215" src="24" tgt="20" wght="0.037037037037037" />
        <Con id="216" src="24" tgt="21" wght="0.0185185185185185" />
        <Con id="217" src="24" tgt="22" wght="0.037037037037037" />
        <Con id="218" src="24" tgt="23" wght="0.0555555555555556" />
        <Con id="219" src="24" tgt="24" wght="0.0925925925925926" />
        <Con id="220" src="24" tgt="25" wght="0.314814814814815" />
        <Con id="221" src="24" tgt="26" wght="0.240740740740741" />
        <Con id="222" src="24" tgt="27" wght="0.0185185185185185" />
        <Con id="223" src="24" tgt="69" wght="0.0185185185185185" />
        <Con id="224" src="24" tgt="70" wght="0.0185185185185185" />
        <Con id="225" src="1" tgt="25" wght="0.00253878702397743" />
        <Con id="226" src="25" tgt="18" wght="0.0222222222222222" />
        <Con id="227" src="25" tgt="19" wght="0.177777777777778" />
        <Con id="228" src="25" tgt="20" wght="0.0222222222222222" />
        <Con id="229" src="25" tgt="21" wght="0.0444444444444444" />
        <Con id="230" src="25" tgt="23" wght="0.133333333333333" />
        <Con id="231" src="25" tgt="24" wght="0.0222222222222222" />
        <Con id="232" src="25" tgt="25" wght="0.1321318928407503" />
        <Con id="233" src="25" tgt="26" wght="0.288888888888889" />
        <Con id="234" src="25" tgt="27" wght="0.177777777777778" />
        <Con id="235" src="1" tgt="26" wght="0.00112834978843441" />
        <Con id="236" src="26" tgt="18" wght="0.05" />
        <Con id="237" src="26" tgt="19" wght="0.1" />
        <Con id="238" src="26" tgt="20" wght="0.0166666666666667" />
        <Con id="239" src="26" tgt="21" wght="0.0166666666666667" />
        <Con id="240" src="26" tgt="22" wght="0.05" />
        <Con id="241" src="26" tgt="23" wght="0.0833333333333333" />
        <Con id="242" src="26" tgt="24" wght="0.133333333333333" />
        <Con id="243" src="26" tgt="25" wght="0.0833333333333333" />
        <Con id="244" src="26" tgt="26" wght="0.0833333333333333" />
        <Con id="245" src="26" tgt="27" wght="0.383333333333333" />
        <Con id="246" src="1" tgt="27" wght="0.00197461212976023" />
        <Con id="247" src="28" tgt="78" wght="1" />
        <Con id="248" src="33" tgt="5" wght="1" />
        <Con id="249" src="1" tgt="34" wght="0.000282087447108604" />
        <Con id="250" src="34" tgt="36" wght="0.0909090909090909" />
        <Con id="251" src="34" tgt="52" wght="0.0909090909090909" />
        <Con id="252" src="34" tgt="53" wght="0.0909090909090909" />
        <Con id="253" src="34" tgt="68" wght="0.0909090909090909" />
        <Con id="254" src="34" tgt="78" wght="0.181818181818182" />
        <Con id="255" src="34" tgt="80" wght="0.272727272727273" />
        <Con id="256" src="34" tgt="84" wght="0.0909090909090909" />
        <Con id="257" src="34" tgt="85" wght="0.0909090909090909" />
        <Con id="258" src="1" tgt="35" wght="0.00253878702397743" />
        <Con id="259" src="35" tgt="37" wght="0.1" />
        <Con id="260" src="35" tgt="67" wght="0.2" />
        <Con id="261" src="35" tgt="71" wght="0.1" />
        <Con id="262" src="35" tgt="75" wght="0.1" />
        <Con id="263" src="35" tgt="81" wght="0.4" />
        <Con id="264" src="35" tgt="84" wght="0.1" />
        <Con id="265" src="1" tgt="36" wght="0.00253878702397743" />
        <Con id="266" src="36" tgt="19" wght="0.133333333333333" />
        <Con id="267" src="36" tgt="37" wght="0.0666666666666667" />
        <Con id="268" src="36" tgt="67" wght="0.133333333333333" />
        <Con id="269" src="36" tgt="71" wght="0.0666666666666667" />
        <Con id="270" src="36" tgt="74" wght="0.333333333333333" />
        <Con id="271" src="36" tgt="81" wght="0.133333333333333" />
        <Con id="272" src="36" tgt="84" wght="0.0666666666666667" />
        <Con id="273" src="36" tgt="87" wght="0.0666666666666667" />
        <Con id="274" src="1" tgt="37" wght="0.00338504936530324" />
        <Con id="275" src="37" tgt="67" wght="0.5" />
        <Con id="276" src="37" tgt="71" wght="0.25" />
        <Con id="277" src="37" tgt="84" wght="0.25" />
        <Con id="278" src="1" tgt="38" wght="0.00112834978843441" />
        <Con id="279" src="38" tgt="52" wght="0.2" />
        <Con id="280" src="38" tgt="59" wght="0.2" />
        <Con id="281" src="38" tgt="67" wght="0.2" />
        <Con id="282" src="38" tgt="78" wght="0.2" />
        <Con id="283" src="38" tgt="85" wght="0.2" />
        <Con id="284" src="1" tgt="39" wght="0.000846262341325811" />
        <Con id="285" src="39" tgt="67" wght="0.0909090909090909" />
        <Con id="286" src="39" tgt="75" wght="0.272727272727273" />
        <Con id="287" src="39" tgt="81" wght="0.0909090909090909" />
        <Con id="288" src="39" tgt="84" wght="0.363636363636364" />
        <Con id="289" src="39" tgt="87" wght="0.181818181818182" />
        <Con id="290" src="1" tgt="40" wght="0.00310296191819464" />
        <Con id="291" src="40" tgt="67" wght="0.166666666666667" />
        <Con id="292" src="40" tgt="71" wght="0.166666666666667" />
        <Con id="293" src="40" tgt="75" wght="0.166666666666667" />
        <Con id="294" src="40" tgt="81" wght="0.333333333333333" />
        <Con id="295" src="40" tgt="84" wght="0.166666666666667" />
        <Con id="296" src="1" tgt="41" wght="0.00169252468265162" />
        <Con id="297" src="41" tgt="35" wght="0.1" />
        <Con id="298" src="41" tgt="67" wght="0.3" />
        <Con id="299" src="41" tgt="71" wght="0.5" />
        <Con id="300" src="41" tgt="81" wght="0.1" />
        <Con id="301" src="1" tgt="42" wght="0.00282087447108604" />
        <Con id="302" src="42" tgt="46" wght="0.5" />
        <Con id="303" src="42" tgt="80" wght="0.5" />
        <Con id="304" src="1" tgt="43" wght="0.000282087447108604" />
        <Con id="305" src="43" tgt="67" wght="0.2" />
        <Con id="306" src="43" tgt="71" wght="0.4" />
        <Con id="307" src="43" tgt="81" wght="0.4" />
        <Con id="308" src="1" tgt="44" wght="0.00282087447108604" />
        <Con id="309" src="44" tgt="43" wght="0.2" />
        <Con id="310" src="44" tgt="67" wght="0.2" />
        <Con id="311" src="44" tgt="75" wght="0.4" />
        <Con id="312" src="44" tgt="80" wght="0.2" />
        <Con id="313" src="1" tgt="45" wght="0.00141043723554302" />
        <Con id="314" src="45" tgt="39" wght="0.333333333333333" />
        <Con id="315" src="45" tgt="46" wght="0.166666666666667" />
        <Con id="316" src="45" tgt="75" wght="0.5" />
        <Con id="317" src="1" tgt="46" wght="0.000846262341325811" />
        <Con id="318" src="46" tgt="67" wght="0.294117647058824" />
        <Con id="319" src="46" tgt="71" wght="0.235294117647059" />
        <Con id="320" src="46" tgt="75" wght="0.235294117647059" />
        <Con id="321" src="46" tgt="81" wght="0.235294117647059" />
        <Con id="322" src="1" tgt="47" wght="0.00451339915373766" />
        <Con id="323" src="47" tgt="37" wght="0.25" />
        <Con id="324" src="47" tgt="71" wght="0.25" />
        <Con id="325" src="47" tgt="75" wght="0.25" />
        <Con id="326" src="47" tgt="81" wght="0.25" />
        <Con id="327" src="1" tgt="48" wght="0.00112834978843441" />
        <Con id="328" src="48" tgt="52" wght="0.333333333333333" />
        <Con id="329" src="48" tgt="55" wght="0.333333333333333" />
        <Con id="330" src="48" tgt="69" wght="0.333333333333333" />
        <Con id="331" src="1" tgt="49" wght="0.000564174894217207" />
        <Con id="332" src="49" tgt="35" wght="0.0714285714285714" />
        <Con id="333" src="49" tgt="67" wght="0.214285714285714" />
        <Con id="334" src="49" tgt="71" wght="0.357142857142857" />
        <Con id="335" src="49" tgt="74" wght="0.0714285714285714" />
        <Con id="336" src="49" tgt="75" wght="0.0714285714285714" />
        <Con id="337" src="49" tgt="81" wght="0.0714285714285714" />
        <Con id="338" src="49" tgt="84" wght="0.0714285714285714" />
        <Con id="339" src="49" tgt="87" wght="0.0714285714285714" />
        <Con id="340" src="1" tgt="50" wght="0.00394922425952045" />
        <Con id="341" src="50" tgt="89" wght="1" />
        <Con id="342" src="1" tgt="51" wght="0.000564174894217207" />
        <Con id="343" src="51" tgt="38" wght="0.111111111111111" />
        <Con id="344" src="51" tgt="46" wght="0.111111111111111" />
        <Con id="345" src="51" tgt="67" wght="0.444444444444444" />
        <Con id="346" src="51" tgt="71" wght="0.111111111111111" />
        <Con id="347" src="51" tgt="81" wght="0.111111111111111" />
        <Con id="348" src="51" tgt="87" wght="0.111111111111111" />
        <Con id="349" src="1" tgt="52" wght="0.00197461212976023" />
        <Con id="350" src="52" tgt="53" wght="0.05" />
        <Con id="351" src="52" tgt="57" wght="0.05" />
        <Con id="352" src="52" tgt="67" wght="0.1" />
        <Con id="353" src="52" tgt="71" wght="0.05" />
        <Con id="354" src="52" tgt="74" wght="0.05" />
        <Con id="355" src="52" tgt="75" wght="0.1" />
        <Con id="356" src="52" tgt="77" wght="0.05" />
        <Con id="357" src="52" tgt="79" wght="0.05" />
        <Con id="358" src="52" tgt="80" wght="0.05" />
        <Con id="359" src="52" tgt="82" wght="0.1" />
        <Con id="360" src="52" tgt="86" wght="0.1" />
        <Con id="361" src="52" tgt="87" wght="0.15" />
        <Con id="362" src="52" tgt="88" wght="0.05" />
        <Con id="363" src="52" tgt="89" wght="0.05" />
        <Con id="364" src="1" tgt="53" wght="0.00507757404795487" />
        <Con id="365" src="53" tgt="67" wght="0.25" />
        <Con id="366" src="53" tgt="71" wght="0.125" />
        <Con id="367" src="53" tgt="74" wght="0.375" />
        <Con id="368" src="53" tgt="75" wght="0.125" />
        <Con id="369" src="53" tgt="87" wght="0.125" />
        <Con id="370" src="1" tgt="54" wght="0.00225669957686883" />
        <Con id="371" src="54" tgt="26" wght="1" />
        <Con id="372" src="55" tgt="71" wght="0.333333333333333" />
        <Con id="373" src="55" tgt="75" wght="0.666666666666667" />
        <Con id="374" src="1" tgt="56" wght="0.000846262341325811" />
        <Con id="375" src="56" tgt="49" wght="0.125" />
        <Con id="376" src="56" tgt="67" wght="0.125" />
        <Con id="377" src="56" tgt="71" wght="0.125" />
        <Con id="378" src="56" tgt="75" wght="0.375" />
        <Con id="379" src="56" tgt="81" wght="0.25" />
        <Con id="380" src="1" tgt="57" wght="0.00197461212976023" />
        <Con id="381" src="58" tgt="81" wght="1" />
        <Con id="382" src="59" tgt="90" wght="1" />
        <Con id="383" src="1" tgt="60" wght="0.000282087447108604" />
        <Con id="384" src="63" tgt="8" wght="1" />
        <Con id="385" src="66" tgt="19" wght="0.0142045454545455" />
        <Con id="386" src="66" tgt="20" wght="0.00170454545454545" />
        <Con id="387" src="66" tgt="21" wght="0.000568181818181818" />
        <Con id="388" src="66" tgt="24" wght="0.000568181818181818" />
        <Con id="389" src="66" tgt="67" wght="0.00909090909090909" />
        <Con id="390" src="66" tgt="68" wght="0.0301136363636364" />
        <Con id="392" src="66" tgt="70" wght="0.0352272727272727" />
        <Con id="393" src="66" tgt="71" wght="0.00625" />
        <Con id="394" src="66" tgt="72" wght="0.00681818181818182" />
        <Con id="395" src="66" tgt="73" wght="0.0204545454545455" />
        <Con id="396" src="66" tgt="74" wght="0.0136363636363636" />
        <Con id="397" src="66" tgt="75" wght="0.0289772727272727" />
        <Con id="398" src="66" tgt="76" wght="0.00113636363636364" />
        <Con id="399" src="66" tgt="77" wght="0.0113636363636364" />
        <Con id="400" src="66" tgt="78" wght="0.0988636363636364" />
        <Con id="401" src="66" tgt="79" wght="0.0659090909090909" />
        <Con id="402" src="66" tgt="80" wght="0.196022727272727" />
        <Con id="403" src="66" tgt="81" wght="0.00284090909090909" />
        <Con id="404" src="66" tgt="82" wght="0.0204545454545455" />
        <Con id="405" src="66" tgt="83" wght="0.00227272727272727" />
        <Con id="406" src="66" tgt="84" wght="0.164772727272727" />
        <Con id="407" src="66" tgt="85" wght="0.0670454545454545" />
        <Con id="408" src="66" tgt="86" wght="0.0715909090909091" />
        <Con id="409" src="66" tgt="87" wght="0.0136363636363636" />
        <Con id="410" src="66" tgt="88" wght="0.0153409090909091" />
        <Con id="411" src="66" tgt="89" wght="0.00909090909090909" />
        <Con id="412" src="66" tgt="90" wght="0.00625" />
        <Con id="413" src="66" tgt="91" wght="0.0306818181818182" />
        <Con id="414" src="66" tgt="92" wght="0.00965909090909091" />
        <Con id="415" src="1" tgt="67" wght="0.0558533145275035" />
        <Con id="416" src="67" tgt="20" wght="0.00363636363636364" />
        <Con id="417" src="67" tgt="21" wght="0.00181818181818182" />
        <Con id="418" src="67" tgt="24" wght="0.00181818181818182" />
        <Con id="419" src="67" tgt="27" wght="0.00181818181818182" />
        <Con id="420" src="67" tgt="67" wght="0.150909090909091" />
        <Con id="421" src="67" tgt="68" wght="0.0436363636363636" />
        <Con id="422" src="67" tgt="69" wght="0.02" />
        <Con id="423" src="67" tgt="70" wght="0.00181818181818182" />
        <Con id="424" src="67" tgt="71" wght="0.194545454545455" />
        <Con id="425" src="67" tgt="74" wght="0.00545454545454546" />
        <Con id="426" src="67" tgt="75" wght="0.123636363636364" />
        <Con id="427" src="67" tgt="78" wght="0.08" />
        <Con id="428" src="67" tgt="79" wght="0.00363636363636364" />
        <Con id="429" src="67" tgt="80" wght="0.00545454545454546" />
        <Con id="430" src="67" tgt="81" wght="0.134545454545455" />
        <Con id="431" src="67" tgt="84" wght="0.08" />
        <Con id="432" src="67" tgt="85" wght="0.00909090909090909" />
        <Con id="433" src="67" tgt="86" wght="0.00181818181818182" />
        <Con id="434" src="67" tgt="87" wght="0.0836363636363636" />
        <Con id="435" src="67" tgt="91" wght="0.0527272727272727" />
        <Con id="436" src="1" tgt="68" wght="0.0741889985895628" />
        <Con id="437" src="68" tgt="18" wght="0.00134952766531714" />
        <Con id="438" src="68" tgt="19" wght="0.00944669365721997" />
        <Con id="439" src="68" tgt="21" wght="0.00269905533063428" />
        <Con id="440" src="68" tgt="67" wght="0.157894736842105" />
        <Con id="441" src="68" tgt="69" wght="0.0242914979757085" />
        <Con id="442" src="68" tgt="70" wght="0.00944669365721997" />
        <Con id="443" src="68" tgt="71" wght="0.107962213225371" />
        <Con id="444" src="68" tgt="74" wght="0.206477732793522" />
        <Con id="445" src="68" tgt="75" wght="0.0472334682860999" />
        <Con id="446" src="68" tgt="77" wght="0.117408906882591" />
        <Con id="447" src="68" tgt="78" wght="0.0296896086369771" />
        <Con id="448" src="68" tgt="81" wght="0.157894736842105" />
        <Con id="449" src="68" tgt="84" wght="0.039136302294197" />
        <Con id="450" src="68" tgt="85" wght="0.00809716599190283" />
        <Con id="451" src="68" tgt="86" wght="0.0296896086369771" />
        <Con id="452" src="68" tgt="87" wght="0.0337381916329285" />
        <Con id="453" src="68" tgt="88" wght="0.00539811066126856" />
        <Con id="454" src="68" tgt="91" wght="0.0121457489878543" />
        <Con id="455" src="1" tgt="69" wght="0.0755994358251058" />
        <Con id="456" src="69" tgt="15" wght="0.0018348623853211" />
        <Con id="457" src="69" tgt="18" wght="0.0036697247706422" />
        <Con id="458" src="69" tgt="19" wght="0.0110091743119266" />
        <Con id="459" src="69" tgt="20" wght="0.0018348623853211" />
        <Con id="460" src="69" tgt="21" wght="0.0018348623853211" />
        <Con id="461" src="69" tgt="22" wght="0.0018348623853211" />
        <Con id="462" src="69" tgt="67" wght="0.179816513761468" />
        <Con id="463" src="69" tgt="68" wght="0.0036697247706422" />
        <Con id="464" src="69" tgt="69" wght="0.0055045871559633" />
        <Con id="465" src="69" tgt="70" wght="0.0385321100917431" />
        <Con id="466" src="69" tgt="71" wght="0.198165137614679" />
        <Con id="467" src="69" tgt="72" wght="0.0275229357798165" />
        <Con id="468" src="69" tgt="73" wght="0.018348623853211" />
        <Con id="469" src="69" tgt="74" wght="0.0055045871559633" />
        <Con id="470" src="69" tgt="75" wght="0.110091743119266" />
        <Con id="471" src="69" tgt="78" wght="0.00917431192660551" />
        <Con id="472" src="69" tgt="79" wght="0.0110091743119266" />
        <Con id="473" src="69" tgt="80" wght="0.0055045871559633" />
        <Con id="474" src="69" tgt="81" wght="0.155963302752294" />
        <Con id="475" src="69" tgt="82" wght="0.0018348623853211" />
        <Con id="476" src="69" tgt="84" wght="0.0697247706422018" />
        <Con id="477" src="69" tgt="85" wght="0.0348623853211009" />
        <Con id="478" src="69" tgt="87" wght="0.0238532110091743" />
        <Con id="479" src="69" tgt="88" wght="0.0036697247706422" />
        <Con id="480" src="69" tgt="89" wght="0.0128440366972477" />
        <Con id="481" src="69" tgt="91" wght="0.0587155963302752" />
        <Con id="482" src="69" tgt="92" wght="0.0036697247706422" />
        <Con id="483" src="1" tgt="70" wght="0.0431593794076164" />
        <Con id="484" src="70" tgt="15" wght="0.000561797752808989" />
        <Con id="485" src="70" tgt="19" wght="0.0224719101123596" />
        <Con id="486" src="70" tgt="20" wght="0.000561797752808989" />
        <Con id="487" src="70" tgt="21" wght="0.00112359550561798" />
        <Con id="488" src="70" tgt="22" wght="0.00112359550561798" />
        <Con id="489" src="70" tgt="24" wght="0.000561797752808989" />
        <Con id="490" src="70" tgt="27" wght="0.000561797752808989" />
        <Con id="491" src="70" tgt="47" wght="0.000561797752808989" />
        <Con id="492" src="70" tgt="67" wght="0.0589887640449438" />
        <Con id="493" src="70" tgt="68" wght="0.0196629213483146" />
        <Con id="494" src="70" tgt="69" wght="0.0185393258426966" />
        <Con id="495" src="70" tgt="70" wght="0.0325842696629213" />
        <Con id="496" src="70" tgt="71" wght="0.0382022471910112" />
        <Con id="497" src="70" tgt="72" wght="0.00674157303370787" />
        <Con id="498" src="70" tgt="73" wght="0.0140449438202247" />
        <Con id="499" src="70" tgt="74" wght="0.00168539325842697" />
        <Con id="500" src="70" tgt="75" wght="0.0112359550561798" />
        <Con id="501" src="70" tgt="76" wght="0.00280898876404494" />
        <Con id="502" src="70" tgt="77" wght="0.0050561797752809" />
        <Con id="503" src="70" tgt="78" wght="0.105056179775281" />
        <Con id="504" src="70" tgt="79" wght="0.0275280898876404" />
        <Con id="505" src="70" tgt="80" wght="0.097752808988764" />
        <Con id="506" src="70" tgt="81" wght="0.0117977528089888" />
        <Con id="507" src="70" tgt="82" wght="0.0157303370786517" />
        <Con id="508" src="70" tgt="83" wght="0.00112359550561798" />
        <Con id="509" src="70" tgt="84" wght="0.256179775280899" />
        <Con id="510" src="70" tgt="85" wght="0.0898876404494382" />
        <Con id="511" src="70" tgt="86" wght="0.0606741573033708" />
        <Con id="512" src="70" tgt="87" wght="0.00617977528089888" />
        <Con id="513" src="70" tgt="88" wght="0.0117977528089888" />
        <Con id="514" src="70" tgt="89" wght="0.0146067415730337" />
        <Con id="515" src="70" tgt="90" wght="0.0157303370786517" />
        <Con id="516" src="70" tgt="91" wght="0.0455056179775281" />
        <Con id="517" src="70" tgt="92" wght="0.00337078651685393" />
        <Con id="518" src="1" tgt="71" wght="0.0183356840620592" />
        <Con id="519" src="71" tgt="19" wght="0.00803212851405622" />
        <Con id="520" src="71" tgt="24" wght="0.00401606425702811" />
        <Con id="521" src="71" tgt="29" wght="0.00401606425702811" />
        <Con id="522" src="71" tgt="67" wght="0.0923694779116466" />
        <Con id="523" src="71" tgt="71" wght="0.116465863453815" />
        <Con id="524" src="71" tgt="72" wght="0.0682730923694779" />
        <Con id="525" src="71" tgt="73" wght="0.0281124497991968" />
        <Con id="526" src="71" tgt="75" wght="0.14859437751004" />
        <Con id="527" src="71" tgt="76" wght="0.00803212851405622" />
        <Con id="528" src="71" tgt="78" wght="0.120481927710843" />
        <Con id="529" src="71" tgt="81" wght="0.0883534136546185" />
        <Con id="530" src="71" tgt="84" wght="0.176706827309237" />
        <Con id="531" src="71" tgt="85" wght="0.00803212851405622" />
        <Con id="532" src="71" tgt="86" wght="0.0160642570281124" />
        <Con id="533" src="71" tgt="87" wght="0.0803212851405622" />
        <Con id="534" src="71" tgt="89" wght="0.00401606425702811" />
        <Con id="535" src="71" tgt="91" wght="0.0281124497991968" />
        <Con id="536" src="1" tgt="72" wght="0.0366713681241185" />
        <Con id="537" src="72" tgt="19" wght="0.00704225352112676" />
        <Con id="538" src="72" tgt="67" wght="0.154929577464789" />
        <Con id="539" src="72" tgt="68" wght="0.0117370892018779" />
        <Con id="540" src="72" tgt="70" wght="0.00469483568075117" />
        <Con id="541" src="72" tgt="71" wght="0.223004694835681" />
        <Con id="542" src="72" tgt="72" wght="0.00234741784037559" />
        <Con id="543" src="72" tgt="73" wght="0.0563380281690141" />
        <Con id="544" src="72" tgt="74" wght="0.0633802816901408" />
        <Con id="545" src="72" tgt="75" wght="0.10093896713615" />
        <Con id="546" src="72" tgt="77" wght="0.00234741784037559" />
        <Con id="547" src="72" tgt="78" wght="0.0492957746478873" />
        <Con id="548" src="72" tgt="79" wght="0.0164319248826291" />
        <Con id="549" src="72" tgt="80" wght="0.0117370892018779" />
        <Con id="550" src="72" tgt="81" wght="0.124413145539906" />
        <Con id="551" src="72" tgt="84" wght="0.0727699530516432" />
        <Con id="552" src="72" tgt="85" wght="0.0164319248826291" />
        <Con id="553" src="72" tgt="87" wght="0.0610328638497653" />
        <Con id="554" src="72" tgt="88" wght="0.00234741784037559" />
        <Con id="555" src="72" tgt="91" wght="0.0164319248826291" />
        <Con id="556" src="72" tgt="92" wght="0.00234741784037559" />
        <Con id="557" src="1" tgt="73" wght="0.0361071932299013" />
        <Con id="558" src="73" tgt="19" wght="0.0166051660516605" />
        <Con id="559" src="73" tgt="20" wght="0.003690036900369" />
        <Con id="560" src="73" tgt="67" wght="0.265682656826568" />
        <Con id="561" src="73" tgt="68" wght="0.003690036900369" />
        <Con id="562" src="73" tgt="70" wght="0.0018450184501845" />
        <Con id="563" src="73" tgt="71" wght="0.252767527675277" />
        <Con id="564" src="73" tgt="74" wght="0.0018450184501845" />
        <Con id="565" src="73" tgt="75" wght="0.132841328413284" />
        <Con id="566" src="73" tgt="76" wght="0.003690036900369" />
        <Con id="567" src="73" tgt="77" wght="0.003690036900369" />
        <Con id="568" src="73" tgt="78" wght="0.0129151291512915" />
        <Con id="569" src="73" tgt="79" wght="0.0018450184501845" />
        <Con id="570" src="73" tgt="80" wght="0.0166051660516605" />
        <Con id="571" src="73" tgt="81" wght="0.142066420664207" />
        <Con id="572" src="73" tgt="84" wght="0.0424354243542435" />
        <Con id="573" src="73" tgt="85" wght="0.003690036900369" />
        <Con id="574" src="73" tgt="86" wght="0.0313653136531365" />
        <Con id="575" src="73" tgt="87" wght="0.0424354243542435" />
        <Con id="576" src="73" tgt="90" wght="0.0018450184501845" />
        <Con id="577" src="73" tgt="91" wght="0.018450184501845" />
        <Con id="578" src="1" tgt="74" wght="0.0366713681241185" />
        <Con id="579" src="74" tgt="19" wght="0.00140252454417952" />
        <Con id="580" src="74" tgt="67" wght="0.0624123422159888" />
        <Con id="581" src="74" tgt="68" wght="0.00981767180925666" />
        <Con id="582" src="74" tgt="69" wght="0.091164095371669" />
        <Con id="583" src="74" tgt="70" wght="0.0329593267882188" />
        <Con id="584" src="74" tgt="71" wght="0.107293127629734" />
        <Con id="585" src="74" tgt="72" wght="0.0105189340813464" />
        <Con id="586" src="74" tgt="73" wght="0.0434782608695652" />
        <Con id="587" src="74" tgt="74" wght="0.000701262272089762" />
        <Con id="588" src="74" tgt="75" wght="0.00140252454417952" />
        <Con id="589" src="74" tgt="76" wght="0.000701262272089762" />
        <Con id="590" src="74" tgt="77" wght="0.0140252454417952" />
        <Con id="591" src="74" tgt="78" wght="0.0778401122019635" />
        <Con id="592" src="74" tgt="79" wght="0.032258064516129" />
        <Con id="593" src="74" tgt="80" wght="0.186535764375877" />
        <Con id="594" src="74" tgt="81" wght="0.032258064516129" />
        <Con id="595" src="74" tgt="82" wght="0.0224403927068724" />
        <Con id="596" src="74" tgt="83" wght="0.00350631136044881" />
        <Con id="597" src="74" tgt="84" wght="0.046984572230014" />
        <Con id="598" src="74" tgt="85" wght="0.100280504908836" />
        <Con id="599" src="74" tgt="86" wght="0.0757363253856942" />
        <Con id="600" src="74" tgt="87" wght="0.00771388499298738" />
        <Con id="601" src="74" tgt="88" wght="0.0133239831697055" />
        <Con id="602" src="74" tgt="89" wght="0.00210378681626928" />
        <Con id="603" src="74" tgt="90" wght="0.0091164095371669" />
        <Con id="604" src="74" tgt="91" wght="0.000701262272089762" />
        <Con id="605" src="74" tgt="92" wght="0.0133239831697055" />
        <Con id="606" src="1" tgt="75" wght="0.0183356840620592" />
        <Con id="607" src="75" tgt="19" wght="0.00609756097560976" />
        <Con id="608" src="75" tgt="67" wght="0.268292682926829" />
        <Con id="609" src="75" tgt="71" wght="0.231707317073171" />
        <Con id="610" src="75" tgt="75" wght="0.0426829268292683" />
        <Con id="611" src="75" tgt="77" wght="0.0304878048780488" />
        <Con id="612" src="75" tgt="81" wght="0.23780487804878" />
        <Con id="613" src="75" tgt="87" wght="0.182926829268293" />
        <Con id="614" src="1" tgt="76" wght="0.0383638928067701" />
        <Con id="615" src="76" tgt="19" wght="0.0189873417721519" />
        <Con id="616" src="76" tgt="59" wght="0.00316455696202532" />
        <Con id="617" src="76" tgt="67" wght="0.110759493670886" />
        <Con id="618" src="76" tgt="69" wght="0.00316455696202532" />
        <Con id="619" src="76" tgt="71" wght="0.294303797468354" />
        <Con id="620" src="76" tgt="72" wght="0.00632911392405063" />
        <Con id="621" src="76" tgt="74" wght="0.00949367088607595" />
        <Con id="622" src="76" tgt="75" wght="0.234177215189873" />
        <Con id="623" src="76" tgt="76" wght="0.00949367088607595" />
        <Con id="624" src="76" tgt="77" wght="0.0221518987341772" />
        <Con id="625" src="76" tgt="78" wght="0.0348101265822785" />
        <Con id="626" src="76" tgt="79" wght="0.00949367088607595" />
        <Con id="627" src="76" tgt="80" wght="0.0221518987341772" />
        <Con id="628" src="76" tgt="81" wght="0.0537974683544304" />
        <Con id="629" src="76" tgt="84" wght="0.0284810126582278" />
        <Con id="630" src="76" tgt="85" wght="0.0253164556962025" />
        <Con id="631" src="76" tgt="87" wght="0.0158227848101266" />
        <Con id="632" src="76" tgt="91" wght="0.0981012658227848" />
        <Con id="633" src="1" tgt="77" wght="0.0203102961918195" />
        <Con id="634" src="77" tgt="19" wght="0.00792864222001982" />
        <Con id="635" src="77" tgt="20" wght="0.000991080277502478" />
        <Con id="636" src="77" tgt="27" wght="0.000991080277502478" />
        <Con id="637" src="77" tgt="29" wght="0.000991080277502478" />
        <Con id="638" src="77" tgt="67" wght="0.130822596630327" />
        <Con id="639" src="77" tgt="68" wght="0.00991080277502478" />
        <Con id="640" src="77" tgt="69" wght="0.00396432111000991" />
        <Con id="641" src="77" tgt="70" wght="0.0237859266600595" />
        <Con id="642" src="77" tgt="71" wght="0.205153617443013" />
        <Con id="643" src="77" tgt="72" wght="0.0138751238850347" />
        <Con id="644" src="77" tgt="73" wght="0.00297324083250743" />
        <Con id="645" src="77" tgt="74" wght="0.00198216055500496" />
        <Con id="646" src="77" tgt="75" wght="0.163528245787909" />
        <Con id="647" src="77" tgt="76" wght="0.000991080277502478" />
        <Con id="648" src="77" tgt="77" wght="0.00495540138751239" />
        <Con id="649" src="77" tgt="78" wght="0.136769078295342" />
        <Con id="650" src="77" tgt="79" wght="0.0089197224975223" />
        <Con id="651" src="77" tgt="80" wght="0.00198216055500496" />
        <Con id="652" src="77" tgt="81" wght="0.144697720515362" />
        <Con id="653" src="77" tgt="82" wght="0.0118929633300297" />
        <Con id="654" src="77" tgt="85" wght="0.0168483647175421" />
        <Con id="655" src="77" tgt="86" wght="0.0188305252725471" />
        <Con id="656" src="77" tgt="87" wght="0.0336967294350842" />
        <Con id="657" src="77" tgt="88" wght="0.0128840436075322" />
        <Con id="658" src="77" tgt="89" wght="0.000991080277502478" />
        <Con id="659" src="77" tgt="91" wght="0.0396432111000991" />
        <Con id="660" src="1" tgt="78" wght="0.0372355430183357" />
        <Con id="661" src="78" tgt="19" wght="0.00314465408805031" />
        <Con id="662" src="78" tgt="20" wght="0.00157232704402516" />
        <Con id="663" src="78" tgt="23" wght="0.00157232704402516" />
        <Con id="664" src="78" tgt="67" wght="0.286163522012579" />
        <Con id="665" src="78" tgt="68" wght="0.0534591194968553" />
        <Con id="666" src="78" tgt="69" wght="0.00157232704402516" />
        <Con id="667" src="78" tgt="71" wght="0.174528301886792" />
        <Con id="668" src="78" tgt="74" wght="0.00157232704402516" />
        <Con id="669" src="78" tgt="75" wght="0.168238993710692" />
        <Con id="670" src="78" tgt="76" wght="0.00157232704402516" />
        <Con id="671" src="78" tgt="78" wght="0.00314465408805031" />
        <Con id="672" src="78" tgt="79" wght="0.050314465408805" />
        <Con id="673" src="78" tgt="80" wght="0.00157232704402516" />
        <Con id="674" src="78" tgt="81" wght="0.139937106918239" />
        <Con id="675" src="78" tgt="82" wght="0.0455974842767296" />
        <Con id="676" src="78" tgt="84" wght="0.00157232704402516" />
        <Con id="677" src="78" tgt="85" wght="0.0110062893081761" />
        <Con id="678" src="78" tgt="86" wght="0.00157232704402516" />
        <Con id="679" src="78" tgt="87" wght="0.0251572327044025" />
        <Con id="680" src="78" tgt="89" wght="0.00157232704402516" />
        <Con id="681" src="78" tgt="91" wght="0.0251572327044025" />
        <Con id="682" src="1" tgt="79" wght="0.0722143864598025" />
        <Con id="683" src="79" tgt="19" wght="0.0121722846441948" />
        <Con id="684" src="79" tgt="20" wght="0.000936329588014981" />
        <Con id="685" src="79" tgt="21" wght="0.000936329588014981" />
        <Con id="686" src="79" tgt="23" wght="0.00187265917602996" />
        <Con id="687" src="79" tgt="25" wght="0.000936329588014981" />
        <Con id="688" src="79" tgt="67" wght="0.110486891385768" />
        <Con id="689" src="79" tgt="68" wght="0.00280898876404494" />
        <Con id="690" src="79" tgt="69" wght="0.0458801498127341" />
        <Con id="691" src="79" tgt="70" wght="0.120786516853933" />
        <Con id="692" src="79" tgt="71" wght="0.158239700374532" />
        <Con id="693" src="79" tgt="72" wght="0.00749063670411985" />
        <Con id="694" src="79" tgt="73" wght="0.0964419475655431" />
        <Con id="695" src="79" tgt="74" wght="0.000936329588014981" />
        <Con id="696" src="79" tgt="75" wght="0.103932584269663" />
        <Con id="697" src="79" tgt="76" wght="0.00468164794007491" />
        <Con id="698" src="79" tgt="77" wght="0.0280898876404494" />
        <Con id="699" src="79" tgt="78" wght="0.00280898876404494" />
        <Con id="700" src="79" tgt="79" wght="0.00280898876404494" />
        <Con id="701" src="79" tgt="80" wght="0.0655430711610487" />
        <Con id="702" src="79" tgt="81" wght="0.0561797752808989" />
        <Con id="703" src="79" tgt="82" wght="0.000936329588014981" />
        <Con id="704" src="79" tgt="84" wght="0.00749063670411985" />
        <Con id="705" src="79" tgt="85" wght="0.0355805243445693" />
        <Con id="706" src="79" tgt="86" wght="0.0861423220973783" />
        <Con id="707" src="79" tgt="87" wght="0.0187265917602996" />
        <Con id="708" src="79" tgt="90" wght="0.000936329588014981" />
        <Con id="709" src="79" tgt="91" wght="0.0243445692883895" />
        <Con id="710" src="79" tgt="92" wght="0.00187265917602996" />
        <Con id="711" src="1" tgt="80" wght="0.0265162200282087" />
        <Con id="712" src="80" tgt="19" wght="0.00689655172413793" />
        <Con id="713" src="80" tgt="20" wght="0.000766283524904215" />
        <Con id="714" src="80" tgt="26" wght="0.000766283524904215" />
        <Con id="715" src="80" tgt="67" wght="0.00996168582375479" />
        <Con id="716" src="80" tgt="68" wght="0.0344827586206897" />
        <Con id="717" src="80" tgt="69" wght="0.0245210727969349" />
        <Con id="718" src="80" tgt="70" wght="0.0206896551724138" />
        <Con id="719" src="80" tgt="71" wght="0.00996168582375479" />
        <Con id="720" src="80" tgt="72" wght="0.00766283524904215" />
        <Con id="721" src="80" tgt="73" wght="0.0291187739463602" />
        <Con id="722" src="80" tgt="74" wght="0.010727969348659" />
        <Con id="723" src="80" tgt="75" wght="0.00766283524904215" />
        <Con id="724" src="80" tgt="76" wght="0.00229885057471264" />
        <Con id="725" src="80" tgt="77" wght="0.0268199233716475" />
        <Con id="726" src="80" tgt="78" wght="0.0888888888888889" />
        <Con id="727" src="80" tgt="79" wght="0.0498084291187739" />
        <Con id="728" src="80" tgt="80" wght="0.191570881226054" />
        <Con id="729" src="80" tgt="81" wght="0.0804597701149425" />
        <Con id="730" src="80" tgt="82" wght="0.0360153256704981" />
        <Con id="731" src="80" tgt="84" wght="0.124904214559387" />
        <Con id="732" src="80" tgt="85" wght="0.0421455938697318" />
        <Con id="733" src="80" tgt="86" wght="0.0490421455938697" />
        <Con id="734" src="80" tgt="87" wght="0.0505747126436782" />
        <Con id="735" src="80" tgt="88" wght="0.032183908045977" />
        <Con id="736" src="80" tgt="89" wght="0.0375478927203065" />
        <Con id="737" src="80" tgt="90" wght="0.00689655172413793" />
        <Con id="738" src="80" tgt="91" wght="0.0145593869731801" />
        <Con id="739" src="80" tgt="92" wght="0.00306513409961686" />
        <Con id="740" src="1" tgt="81" wght="0.0104372355430183" />
        <Con id="741" src="81" tgt="19" wght="0.00212765957446809" />
        <Con id="742" src="81" tgt="67" wght="0.161702127659574" />
        <Con id="743" src="81" tgt="68" wght="0.00212765957446809" />
        <Con id="744" src="81" tgt="69" wght="0.00638297872340426" />
        <Con id="745" src="81" tgt="70" wght="0.00212765957446809" />
        <Con id="746" src="81" tgt="71" wght="0.172340425531915" />
        <Con id="747" src="81" tgt="73" wght="0.00425531914893617" />
        <Con id="748" src="81" tgt="74" wght="0.0978723404255319" />
        <Con id="749" src="81" tgt="75" wght="0.1" />
        <Con id="750" src="81" tgt="77" wght="0.00425531914893617" />
        <Con id="751" src="81" tgt="78" wght="0.0574468085106383" />
        <Con id="752" src="81" tgt="79" wght="0.00425531914893617" />
        <Con id="753" src="81" tgt="81" wght="0.125531914893617" />
        <Con id="754" src="81" tgt="82" wght="0.074468085106383" />
        <Con id="755" src="81" tgt="84" wght="0.0617021276595745" />
        <Con id="756" src="81" tgt="85" wght="0.0319148936170213" />
        <Con id="757" src="81" tgt="86" wght="0.0170212765957447" />
        <Con id="758" src="81" tgt="87" wght="0.0382978723404255" />
        <Con id="759" src="81" tgt="91" wght="0.0361702127659574" />
        <Con id="760" src="1" tgt="82" wght="0.0558533145275035" />
        <Con id="761" src="82" tgt="19" wght="0.0789473684210526" />
        <Con id="762" src="82" tgt="20" wght="0.0526315789473684" />
        <Con id="763" src="82" tgt="67" wght="0.0526315789473684" />
        <Con id="764" src="82" tgt="83" wght="0.0526315789473684" />
        <Con id="765" src="82" tgt="87" wght="0.473684210526316" />
        <Con id="766" src="82" tgt="89" wght="0.289473684210526" />
        <Con id="767" src="1" tgt="83" wght="0.00507757404795487" />
        <Con id="768" src="83" tgt="19" wght="0.0189423835832676" />
        <Con id="769" src="83" tgt="20" wght="0.0015785319652723" />
        <Con id="770" src="83" tgt="22" wght="0.000789265982636148" />
        <Con id="771" src="83" tgt="24" wght="0.000789265982636148" />
        <Con id="772" src="83" tgt="27" wght="0.000789265982636148" />
        <Con id="773" src="83" tgt="67" wght="0.127861089187056" />
        <Con id="774" src="83" tgt="68" wght="0.00947119179163378" />
        <Con id="775" src="83" tgt="69" wght="0.015785319652723" />
        <Con id="776" src="83" tgt="70" wght="0.0505130228887135" />
        <Con id="777" src="83" tgt="71" wght="0.138121546961326" />
        <Con id="778" src="83" tgt="72" wght="0.0110497237569061" />
        <Con id="779" src="83" tgt="73" wght="0.0181531176006314" />
        <Con id="780" src="83" tgt="74" wght="0.00236779794790845" />
        <Con id="781" src="83" tgt="75" wght="0.151539068666141" />
        <Con id="782" src="83" tgt="76" wght="0.0015785319652723" />
        <Con id="783" src="83" tgt="77" wght="0.0220994475138122" />
        <Con id="784" src="83" tgt="78" wght="0.0331491712707182" />
        <Con id="785" src="83" tgt="79" wght="0.0220994475138122" />
        <Con id="786" src="83" tgt="80" wght="0.0299921073401736" />
        <Con id="787" src="83" tgt="81" wght="0.123914759273875" />
        <Con id="788" src="83" tgt="82" wght="0.00868192580899763" />
        <Con id="789" src="83" tgt="83" wght="0.000789265982636148" />
        <Con id="790" src="83" tgt="84" wght="0.0355169692186267" />
        <Con id="791" src="83" tgt="85" wght="0.0410418310970797" />
        <Con id="792" src="83" tgt="86" wght="0.058405682715075" />
        <Con id="793" src="83" tgt="87" wght="0.0276243093922652" />
        <Con id="794" src="83" tgt="88" wght="0.0102604577742699" />
        <Con id="795" src="83" tgt="89" wght="0.00394632991318074" />
        <Con id="796" src="83" tgt="90" wght="0.000789265982636148" />
        <Con id="797" src="83" tgt="91" wght="0.0307813733228098" />
        <Con id="798" src="83" tgt="92" wght="0.0015785319652723" />
        <Con id="799" src="1" tgt="84" wght="0.0403385049365303" />
        <Con id="800" src="84" tgt="19" wght="0.00847457627118644" />
        <Con id="801" src="84" tgt="24" wght="0.00105932203389831" />
        <Con id="802" src="84" tgt="27" wght="0.00105932203389831" />
        <Con id="803" src="84" tgt="67" wght="0.0953389830508475" />
        <Con id="804" src="84" tgt="68" wght="0.00423728813559322" />
        <Con id="805" src="84" tgt="69" wght="0.0497881355932203" />
        <Con id="806" src="84" tgt="70" wght="0.0169491525423729" />
        <Con id="807" src="84" tgt="71" wght="0.0911016949152542" />
        <Con id="808" src="84" tgt="72" wght="0.00211864406779661" />
        <Con id="809" src="84" tgt="73" wght="0.00105932203389831" />
        <Con id="810" src="84" tgt="74" wght="0.0985169491525424" />
        <Con id="811" src="84" tgt="75" wght="0.0646186440677966" />
        <Con id="812" src="84" tgt="77" wght="0.0296610169491525" />
        <Con id="813" src="84" tgt="78" wght="0.0127118644067797" />
        <Con id="814" src="84" tgt="79" wght="0.0211864406779661" />
        <Con id="815" src="84" tgt="80" wght="0.0190677966101695" />
        <Con id="816" src="84" tgt="81" wght="0.0572033898305085" />
        <Con id="817" src="84" tgt="82" wght="0.0413135593220339" />
        <Con id="818" src="84" tgt="83" wght="0.00105932203389831" />
        <Con id="819" src="84" tgt="84" wght="0.00211864406779661" />
        <Con id="820" src="84" tgt="85" wght="0.0942796610169492" />
        <Con id="821" src="84" tgt="86" wght="0.192796610169492" />
        <Con id="822" src="84" tgt="87" wght="0.051906779661017" />
        <Con id="823" src="84" tgt="89" wght="0.0222457627118644" />
        <Con id="824" src="84" tgt="90" wght="0.00211864406779661" />
        <Con id="825" src="84" tgt="91" wght="0.0169491525423729" />
        <Con id="826" src="84" tgt="92" wght="-0.025487250977225546" />
        <Con id="827" src="1" tgt="85" wght="0.103526093088858" />
        <Con id="828" src="85" tgt="15" wght="0.00108342361863489" />
        <Con id="829" src="85" tgt="19" wght="0.0119176598049837" />
        <Con id="830" src="85" tgt="20" wght="0.00433369447453954" />
        <Con id="831" src="85" tgt="21" wght="0.00325027085590466" />
        <Con id="832" src="85" tgt="22" wght="0.00108342361863489" />
        <Con id="833" src="85" tgt="67" wght="0.127843986998917" />
        <Con id="834" src="85" tgt="68" wght="0.0075839653304442" />
        <Con id="835" src="85" tgt="69" wght="0.0173347778981582" />
        <Con id="836" src="85" tgt="70" wght="0.00433369447453954" />
        <Con id="837" src="85" tgt="71" wght="0.196099674972914" />
        <Con id="838" src="85" tgt="72" wght="0.00433369447453954" />
        <Con id="839" src="85" tgt="73" wght="0.00108342361863489" />
        <Con id="840" src="85" tgt="74" wght="0.0975081256771398" />
        <Con id="841" src="85" tgt="75" wght="0.119176598049837" />
        <Con id="842" src="85" tgt="77" wght="0.00325027085590466" />
        <Con id="843" src="85" tgt="78" wght="0.0173347778981582" />
        <Con id="844" src="85" tgt="79" wght="0.00975081256771398" />
        <Con id="845" src="85" tgt="80" wght="0.00975081256771398" />
        <Con id="846" src="85" tgt="81" wght="0.102925243770314" />
        <Con id="847" src="85" tgt="82" wght="0.00108342361863489" />
        <Con id="848" src="85" tgt="84" wght="0.075839653304442" />
        <Con id="849" src="85" tgt="85" wght="0.0249187432286024" />
        <Con id="850" src="85" tgt="86" wght="0.0660888407367281" />
        <Con id="851" src="85" tgt="87" wght="0.0357529794149512" />
        <Con id="852" src="85" tgt="89" wght="0.00866738894907909" />
        <Con id="853" src="85" tgt="91" wght="0.0433369447453954" />
        <Con id="854" src="85" tgt="92" wght="0.00433369447453954" />
        <Con id="855" src="1" tgt="86" wght="0.0468265162200282" />
        <Con id="856" src="86" tgt="3" wght="0.00187617260787992" />
        <Con id="857" src="86" tgt="19" wght="0.00375234521575985" />
        <Con id="858" src="86" tgt="20" wght="0.00562851782363977" />
        <Con id="859" src="86" tgt="26" wght="0.00375234521575985" />
        <Con id="860" src="86" tgt="67" wght="0.0300187617260788" />
        <Con id="861" src="86" tgt="68" wght="0.0337711069418387" />
        <Con id="862" src="86" tgt="69" wght="0.0712945590994371" />
        <Con id="863" src="86" tgt="70" wght="0.0450281425891182" />
        <Con id="864" src="86" tgt="71" wght="0.0656660412757974" />
        <Con id="865" src="86" tgt="72" wght="0.0168855534709193" />
        <Con id="866" src="86" tgt="73" wght="0.0431519699812383" />
        <Con id="867" src="86" tgt="74" wght="0.00187617260787992" />
        <Con id="868" src="86" tgt="75" wght="0.0281425891181989" />
        <Con id="869" src="86" tgt="77" wght="0.0075046904315197" />
        <Con id="870" src="86" tgt="78" wght="0.0656660412757974" />
        <Con id="871" src="86" tgt="79" wght="0.0562851782363977" />
        <Con id="872" src="86" tgt="80" wght="0.116322701688555" />
        <Con id="873" src="86" tgt="81" wght="0.00187617260787992" />
        <Con id="874" src="86" tgt="82" wght="0.0337711069418387" />
        <Con id="875" src="86" tgt="84" wght="0.112570356472795" />
        <Con id="876" src="86" tgt="85" wght="0.142589118198874" />
        <Con id="877" src="86" tgt="86" wght="0.0938086303939962" />
        <Con id="878" src="86" tgt="88" wght="0.00187617260787992" />
        <Con id="879" src="86" tgt="91" wght="0.0075046904315197" />
        <Con id="880" src="86" tgt="92" wght="0.00938086303939963" />
        <Con id="881" src="1" tgt="87" wght="0.00338504936530324" />
        <Con id="882" src="87" tgt="67" wght="0.134020618556701" />
        <Con id="883" src="87" tgt="68" wght="0.0206185567010309" />
        <Con id="884" src="87" tgt="71" wght="0.463917525773196" />
        <Con id="885" src="87" tgt="75" wght="0.293814432989691" />
        <Con id="886" src="87" tgt="81" wght="0.0721649484536082" />
        <Con id="887" src="87" tgt="91" wght="0.0154639175257732" />
        <Con id="888" src="1" tgt="88" wght="0.013540197461213" />
        <Con id="889" src="88" tgt="3" wght="0.00467289719626168" />
        <Con id="890" src="88" tgt="18" wght="0.00467289719626168" />
        <Con id="891" src="88" tgt="19" wght="0.014018691588785" />
        <Con id="892" src="88" tgt="20" wght="0.014018691588785" />
        <Con id="893" src="88" tgt="21" wght="0.00934579439252336" />
        <Con id="894" src="88" tgt="67" wght="0.191588785046729" />
        <Con id="895" src="88" tgt="68" wght="0.0186915887850467" />
        <Con id="896" src="88" tgt="69" wght="0.00467289719626168" />
        <Con id="897" src="88" tgt="70" wght="0.00467289719626168" />
        <Con id="898" src="88" tgt="71" wght="0.214953271028037" />
        <Con id="899" src="88" tgt="72" wght="0.014018691588785" />
        <Con id="900" src="88" tgt="73" wght="0.00467289719626168" />
        <Con id="901" src="88" tgt="74" wght="0.0420560747663551" />
        <Con id="902" src="88" tgt="75" wght="0.168224299065421" />
        <Con id="903" src="88" tgt="76" wght="0.00467289719626168" />
        <Con id="904" src="88" tgt="77" wght="0.014018691588785" />
        <Con id="905" src="88" tgt="78" wght="0.00934579439252336" />
        <Con id="906" src="88" tgt="79" wght="0.00934579439252336" />
        <Con id="907" src="88" tgt="80" wght="0.0233644859813084" />
        <Con id="908" src="88" tgt="81" wght="0.121495327102804" />
        <Con id="909" src="88" tgt="82" wght="0.00467289719626168" />
        <Con id="910" src="88" tgt="84" wght="0.014018691588785" />
        <Con id="911" src="88" tgt="85" wght="0.0420560747663551" />
        <Con id="912" src="88" tgt="86" wght="0.00934579439252336" />
        <Con id="913" src="88" tgt="87" wght="0.00934579439252336" />
        <Con id="914" src="88" tgt="89" wght="0.014018691588785" />
        <Con id="915" src="88" tgt="91" wght="0.014018691588785" />
        <Con id="916" src="1" tgt="89" wght="0.041348353741742026" />
        <Con id="917" src="89" tgt="15" wght="0.025974025974026" />
        <Con id="918" src="89" tgt="19" wght="0.051948051948052" />
        <Con id="919" src="89" tgt="21" wght="0.012987012987013" />
        <Con id="920" src="89" tgt="67" wght="0.116883116883117" />
        <Con id="921" src="89" tgt="68" wght="0.012987012987013" />
        <Con id="922" src="89" tgt="69" wght="0.116883116883117" />
        <Con id="923" src="89" tgt="71" wght="0.025974025974026" />
        <Con id="924" src="89" tgt="72" wght="0.025974025974026" />
        <Con id="925" src="89" tgt="75" wght="0.0909090909090909" />
        <Con id="926" src="89" tgt="79" wght="0.012987012987013" />
        <Con id="927" src="89" tgt="81" wght="0.012987012987013" />
        <Con id="928" src="89" tgt="82" wght="0.051948051948052" />
        <Con id="929" src="89" tgt="86" wght="0.025974025974026" />
        <Con id="930" src="89" tgt="87" wght="0.025974025974026" />
        <Con id="931" src="89" tgt="89" wght="0.025974025974026" />
        <Con id="932" src="89" tgt="90" wght="0.246753246753247" />
        <Con id="933" src="89" tgt="91" wght="0.116883116883117" />
        <Con id="934" src="1" tgt="90" wght="0.00423131170662906" />
        <Con id="935" src="90" tgt="19" wght="0.18" />
        <Con id="936" src="90" tgt="20" wght="0.005" />
        <Con id="937" src="90" tgt="25" wght="0.005" />
        <Con id="938" src="90" tgt="67" wght="0.07" />
        <Con id="939" src="90" tgt="68" wght="0.06" />
        <Con id="940" src="90" tgt="69" wght="0.025" />
        <Con id="941" src="90" tgt="70" wght="0.065" />
        <Con id="942" src="90" tgt="71" wght="0.075" />
        <Con id="943" src="90" tgt="72" wght="0.005" />
        <Con id="944" src="90" tgt="73" wght="0.025" />
        <Con id="945" src="90" tgt="76" wght="0.01" />
        <Con id="946" src="90" tgt="77" wght="0.01" />
        <Con id="947" src="90" tgt="78" wght="0.095" />
        <Con id="948" src="90" tgt="79" wght="0.02" />
        <Con id="949" src="90" tgt="80" wght="0.055" />
        <Con id="950" src="90" tgt="81" wght="0.125" />
        <Con id="951" src="90" tgt="82" wght="0.01" />
        <Con id="952" src="90" tgt="84" wght="0.025" />
        <Con id="953" src="90" tgt="85" wght="0.055" />
        <Con id="954" src="90" tgt="86" wght="0.035" />
        <Con id="955" src="90" tgt="87" wght="0.015" />
        <Con id="956" src="90" tgt="88" wght="0.01" />
        <Con id="957" src="90" tgt="89" wght="0.01" />
        <Con id="958" src="90" tgt="92" wght="0.01" />
        <Con id="959" src="1" tgt="91" wght="0.00394922425952045" />
        <Con id="960" src="91" tgt="19" wght="0.0111111111111111" />
        <Con id="961" src="91" tgt="20" wght="0.0111111111111111" />
        <Con id="962" src="91" tgt="67" wght="0.188888888888889" />
        <Con id="963" src="91" tgt="70" wght="0.0222222222222222" />
        <Con id="964" src="91" tgt="71" wght="0.155555555555556" />
        <Con id="965" src="91" tgt="74" wght="0.0111111111111111" />
        <Con id="966" src="91" tgt="75" wght="0.0888888888888889" />
        <Con id="967" src="91" tgt="77" wght="0.0111111111111111" />
        <Con id="968" src="91" tgt="78" wght="0.0111111111111111" />
        <Con id="969" src="91" tgt="79" wght="0.0444444444444444" />
        <Con id="970" src="91" tgt="80" wght="0.0222222222222222" />
        <Con id="971" src="91" tgt="81" wght="0.122222222222222" />
        <Con id="972" src="91" tgt="87" wght="0.0111111111111111" />
        <Con id="973" src="91" tgt="89" wght="0.0111111111111111" />
        <Con id="974" src="91" tgt="90" wght="0.0666666666666667" />
        <Con id="975" src="91" tgt="91" wght="0.0555555555555556" />
        <Con id="976" src="91" tgt="92" wght="0.155555555555556" />
        <Con id="977" src="1" tgt="92" wght="0.00705218617771509" />
        <Con id="979" src="66" tgt="978" wght="0.0454545454545455" />
        <Con id="980" src="978" tgt="69" wght="5" />
      </Connections>
    </Network>
  </Networks>
</Root>