<Root>
  <ActivationFunctions>
    <Fn id="0" name="MC- " prob="0.010526315789473684" />
    <Fn id="1" name="MC-!" prob="0.010526315789473684" />
    <Fn id="2" name="MC-&quot;" prob="0.010526315789473684" />
    <Fn id="3" name="MC-#" prob="0.010526315789473684" />
    <Fn id="4" name="MC-$" prob="0.010526315789473684" />
    <Fn id="5" name="MC-%" prob="0.010526315789473684" />
    <Fn id="6" name="MC-&amp;" prob="0.010526315789473684" />
    <Fn id="7" name="MC-'" prob="0.010526315789473684" />
    <Fn id="8" name="MC-(" prob="0.010526315789473684" />
    <Fn id="9" name="MC-)" prob="0.010526315789473684" />
    <Fn id="10" name="MC-*" prob="0.010526315789473684" />
    <Fn id="11" name="MC-+" prob="0.010526315789473684" />
    <Fn id="12" name="MC-," prob="0.010526315789473684" />
    <Fn id="13" name="MC--" prob="0.010526315789473684" />
    <Fn id="14" name="MC-." prob="0.010526315789473684" />
    <Fn id="15" name="MC-/" prob="0.010526315789473684" />
    <Fn id="16" name="MC-0" prob="0.010526315789473684" />
    <Fn id="17" name="MC-1" prob="0.010526315789473684" />
    <Fn id="18" name="MC-2" prob="0.010526315789473684" />
    <Fn id="19" name="MC-3" prob="0.010526315789473684" />
    <Fn id="20" name="MC-4" prob="0.010526315789473684" />
    <Fn id="21" name="MC-5" prob="0.010526315789473684" />
    <Fn id="22" name="MC-6" prob="0.010526315789473684" />
    <Fn id="23" name="MC-7" prob="0.010526315789473684" />
    <Fn id="24" name="MC-8" prob="0.010526315789473684" />
    <Fn id="25" name="MC-9" prob="0.010526315789473684" />
    <Fn id="26" name="MC-:" prob="0.010526315789473684" />
    <Fn id="27" name="MC-;" prob="0.010526315789473684" />
    <Fn id="28" name="MC-&lt;" prob="0.010526315789473684" />
    <Fn id="29" name="MC-=" prob="0.010526315789473684" />
    <Fn id="30" name="MC-&gt;" prob="0.010526315789473684" />
    <Fn id="31" name="MC-?" prob="0.010526315789473684" />
    <Fn id="32" name="MC-@" prob="0.010526315789473684" />
    <Fn id="33" name="MC-A" prob="0.010526315789473684" />
    <Fn id="34" name="MC-B" prob="0.010526315789473684" />
    <Fn id="35" name="MC-C" prob="0.010526315789473684" />
    <Fn id="36" name="MC-D" prob="0.010526315789473684" />
    <Fn id="37" name="MC-E" prob="0.010526315789473684" />
    <Fn id="38" name="MC-F" prob="0.010526315789473684" />
    <Fn id="39" name="MC-G" prob="0.010526315789473684" />
    <Fn id="40" name="MC-H" prob="0.010526315789473684" />
    <Fn id="41" name="MC-I" prob="0.010526315789473684" />
    <Fn id="42" name="MC-J" prob="0.010526315789473684" />
    <Fn id="43" name="MC-K" prob="0.010526315789473684" />
    <Fn id="44" name="MC-L" prob="0.010526315789473684" />
    <Fn id="45" name="MC-M" prob="0.010526315789473684" />
    <Fn id="46" name="MC-N" prob="0.010526315789473684" />
    <Fn id="47" name="MC-O" prob="0.010526315789473684" />
    <Fn id="48" name="MC-P" prob="0.010526315789473684" />
    <Fn id="49" name="MC-Q" prob="0.010526315789473684" />
    <Fn id="50" name="MC-R" prob="0.010526315789473684" />
    <Fn id="51" name="MC-S" prob="0.010526315789473684" />
    <Fn id="52" name="MC-T" prob="0.010526315789473684" />
    <Fn id="53" name="MC-U" prob="0.010526315789473684" />
    <Fn id="54" name="MC-V" prob="0.010526315789473684" />
    <Fn id="55" name="MC-W" prob="0.010526315789473684" />
    <Fn id="56" name="MC-X" prob="0.010526315789473684" />
    <Fn id="57" name="MC-Y" prob="0.010526315789473684" />
    <Fn id="58" name="MC-Z" prob="0.010526315789473684" />
    <Fn id="59" name="MC-[" prob="0.010526315789473684" />
    <Fn id="60" name="MC-\" prob="0.010526315789473684" />
    <Fn id="61" name="MC-]" prob="0.010526315789473684" />
    <Fn id="62" name="MC-^" prob="0.010526315789473684" />
    <Fn id="63" name="MC-_" prob="0.010526315789473684" />
    <Fn id="64" name="MC-`" prob="0.010526315789473684" />
    <Fn id="65" name="MC-a" prob="0.010526315789473684" />
    <Fn id="66" name="MC-b" prob="0.010526315789473684" />
    <Fn id="67" name="MC-c" prob="0.010526315789473684" />
    <Fn id="68" name="MC-d" prob="0.010526315789473684" />
    <Fn id="69" name="MC-e" prob="0.010526315789473684" />
    <Fn id="70" name="MC-f" prob="0.010526315789473684" />
    <Fn id="71" name="MC-g" prob="0.010526315789473684" />
    <Fn id="72" name="MC-h" prob="0.010526315789473684" />
    <Fn id="73" name="MC-i" prob="0.010526315789473684" />
    <Fn id="74" name="MC-j" prob="0.010526315789473684" />
    <Fn id="75" name="MC-k" prob="0.010526315789473684" />
    <Fn id="76" name="MC-l" prob="0.010526315789473684" />
    <Fn id="77" name="MC-m" prob="0.010526315789473684" />
    <Fn id="78" name="MC-n" prob="0.010526315789473684" />
    <Fn id="79" name="MC-o" prob="0.010526315789473684" />
    <Fn id="80" name="MC-p" prob="0.010526315789473684" />
    <Fn id="81" name="MC-q" prob="0.010526315789473684" />
    <Fn id="82" name="MC-r" prob="0.010526315789473684" />
    <Fn id="83" name="MC-s" prob="0.010526315789473684" />
    <Fn id="84" name="MC-t" prob="0.010526315789473684" />
    <Fn id="85" name="MC-u" prob="0.010526315789473684" />
    <Fn id="86" name="MC-v" prob="0.010526315789473684" />
    <Fn id="87" name="MC-w" prob="0.010526315789473684" />
    <Fn id="88" name="MC-x" prob="0.010526315789473684" />
    <Fn id="89" name="MC-y" prob="0.010526315789473684" />
    <Fn id="90" name="MC-z" prob="0.010526315789473684" />
    <Fn id="91" name="MC-{" prob="0.010526315789473684" />
    <Fn id="92" name="MC-|" prob="0.010526315789473684" />
    <Fn id="93" name="MC-}" prob="0.010526315789473684" />
    <Fn id="94" name="MC-~" prob="0.010526315789473684" />
  </ActivationFunctions>
  <Networks>
    <Network id="18610" birthGen="220" fitness="0">
      <Nodes>
        <Node type="bias" id="0" fnId="0" />
        <Node type="in" id="1" fnId="0" />
        <Node type="out" id="2" fnId="64" />
        <Node type="hid" id="683" fnId="45" />
        <Node type="hid" id="9722" fnId="39" />
        <Node type="hid" id="13653" fnId="39" />
      </Nodes>
      <Connections>
        <Con id="6" src="2" tgt="2" wght="-1.3513609441032091" />
        <Con id="9723" src="0" tgt="9722" wght="3.0817734638778087" />
        <Con id="13654" src="9722" tgt="13653" wght="-5" />
        <Con id="13655" src="13653" tgt="683" wght="5" />
      </Connections>
    </Network>
  </Networks>
</Root>